digraph Tree {
node [shape=box, style="rounded", color="black", fontname=helvetica] ;
edge [fontname=helvetica] ;
0 [label="tenure_rent_house_with_lot <= 0.5\ngini = 0.7\nsamples = 15735\nvalue = [33, 470, 2390, 8214, 6986, 6791]\nclass = middle"] ;
1 [label="tenure_owner_house_and_lot <= 0.5\ngini = 0.7\nsamples = 14910\nvalue = [33, 466, 2349, 7532, 6762, 6418]\nclass = middle"] ;
0 -> 1 [labeldistance=2.5, labelangle=45, headlabel="True"] ;
2 [label="tobacco_expenditure <= 5952.0\ngini = 0.7\nsamples = 4048\nvalue = [12, 139, 825, 1299, 2367, 1850]\nclass = lower_middle"] ;
1 -> 2 ;
3 [label="agricultural_indicator <= 1.5\ngini = 0.7\nsamples = 3507\nvalue = [12, 138, 793, 994, 2125, 1530]\nclass = lower_middle"] ;
2 -> 3 ;
4 [label="farming_and_gardening_expenses <= 30.0\ngini = 0.7\nsamples = 3151\nvalue = [12, 136, 755, 747, 2032, 1345]\nclass = lower_middle"] ;
3 -> 4 ;
5 [label="gini = 0.7\nsamples = 2133\nvalue = [5, 70, 378, 609, 1309, 1030]\nclass = lower_middle"] ;
4 -> 5 ;
6 [label="gini = 0.7\nsamples = 1018\nvalue = [7, 66, 377, 138, 723, 315]\nclass = lower_middle"] ;
4 -> 6 ;
7 [label="housing_and_water_expenditure <= 40995.0\ngini = 0.7\nsamples = 356\nvalue = [0, 2, 38, 247, 93, 185]\nclass = middle"] ;
3 -> 7 ;
8 [label="gini = 0.7\nsamples = 206\nvalue = [0, 2, 38, 60, 87, 135]\nclass = low_income_not_poor"] ;
7 -> 8 ;
9 [label="gini = 0.4\nsamples = 150\nvalue = [0, 0, 0, 187, 6, 50]\nclass = middle"] ;
7 -> 9 ;
10 [label="special_occassions_expenditure <= 1025.0\ngini = 0.7\nsamples = 541\nvalue = [0, 1, 32, 305, 242, 320]\nclass = low_income_not_poor"] ;
2 -> 10 ;
11 [label="clothings_expenditure <= 4138.5\ngini = 0.7\nsamples = 252\nvalue = [0, 1, 29, 80, 174, 140]\nclass = lower_middle"] ;
10 -> 11 ;
12 [label="gini = 0.7\nsamples = 203\nvalue = [0, 1, 28, 44, 163, 111]\nclass = lower_middle"] ;
11 -> 12 ;
13 [label="gini = 0.6\nsamples = 49\nvalue = [0, 0, 1, 36, 11, 29]\nclass = middle"] ;
11 -> 13 ;
14 [label="housing_and_water_expenditure <= 25665.0\ngini = 0.6\nsamples = 289\nvalue = [0, 0, 3, 225, 68, 180]\nclass = middle"] ;
10 -> 14 ;
15 [label="gini = 0.6\nsamples = 159\nvalue = [0, 0, 3, 69, 62, 138]\nclass = low_income_not_poor"] ;
14 -> 15 ;
16 [label="gini = 0.4\nsamples = 130\nvalue = [0, 0, 0, 156, 6, 42]\nclass = middle"] ;
14 -> 16 ;
17 [label="total_food_expenditure <= 88809.0\ngini = 0.7\nsamples = 10862\nvalue = [21, 327, 1524, 6233, 4395, 4568]\nclass = middle"] ;
1 -> 17 ;
18 [label="worker_class_worked_for_govt <= 0.5\ngini = 0.7\nsamples = 6924\nvalue = [21, 327, 1514, 1451, 4254, 3376]\nclass = lower_middle"] ;
17 -> 18 ;
19 [label="tobacco_expenditure <= 3070.5\ngini = 0.7\nsamples = 6532\nvalue = [21, 327, 1483, 1217, 4112, 3169]\nclass = lower_middle"] ;
18 -> 19 ;
20 [label="gini = 0.7\nsamples = 5047\nvalue = [21, 296, 1300, 931, 3184, 2221]\nclass = lower_middle"] ;
19 -> 20 ;
21 [label="gini = 0.7\nsamples = 1485\nvalue = [0, 31, 183, 286, 928, 948]\nclass = low_income_not_poor"] ;
19 -> 21 ;
22 [label="agricultural_indicator <= 0.5\ngini = 0.7\nsamples = 392\nvalue = [0, 0, 31, 234, 142, 207]\nclass = middle"] ;
18 -> 22 ;
23 [label="gini = 0.7\nsamples = 357\nvalue = [0, 0, 29, 229, 125, 181]\nclass = middle"] ;
22 -> 23 ;
24 [label="gini = 0.6\nsamples = 35\nvalue = [0, 0, 2, 5, 17, 26]\nclass = low_income_not_poor"] ;
22 -> 24 ;
25 [label="total_income_entrepreneurship <= 174045.5\ngini = 0.4\nsamples = 3938\nvalue = [0, 0, 10, 4782, 141, 1192]\nclass = middle"] ;
17 -> 25 ;
26 [label="education_expenditure <= 10475.0\ngini = 0.4\nsamples = 3310\nvalue = [0, 0, 10, 3798, 141, 1181]\nclass = middle"] ;
25 -> 26 ;
27 [label="gini = 0.5\nsamples = 2205\nvalue = [0, 0, 8, 2235, 126, 1023]\nclass = middle"] ;
26 -> 27 ;
28 [label="gini = 0.2\nsamples = 1105\nvalue = [0, 0, 2, 1563, 15, 158]\nclass = middle"] ;
26 -> 28 ;
29 [label="income_source_wage_salaries <= 0.5\ngini = 0.0\nsamples = 628\nvalue = [0, 0, 0, 984, 0, 11]\nclass = middle"] ;
25 -> 29 ;
30 [label="gini = 0.0\nsamples = 531\nvalue = [0, 0, 0, 826, 0, 11]\nclass = middle"] ;
29 -> 30 ;
31 [label="gini = 0.0\nsamples = 97\nvalue = [0, 0, 0, 158, 0, 0]\nclass = middle"] ;
29 -> 31 ;
32 [label="total_food_expenditure <= 94475.5\ngini = 0.6\nsamples = 825\nvalue = [0, 4, 41, 682, 224, 373]\nclass = middle"] ;
0 -> 32 [labeldistance=2.5, labelangle=-45, headlabel="False"] ;
33 [label="worker_class_worked_for_govt <= 0.5\ngini = 0.7\nsamples = 426\nvalue = [0, 4, 41, 127, 219, 294]\nclass = low_income_not_poor"] ;
32 -> 33 ;
34 [label="household_type_single_fam <= 0.5\ngini = 0.7\nsamples = 404\nvalue = [0, 4, 41, 112, 215, 282]\nclass = low_income_not_poor"] ;
33 -> 34 ;
35 [label="total_food_expenditure <= 52256.5\ngini = 0.7\nsamples = 62\nvalue = [0, 0, 13, 34, 28, 36]\nclass = low_income_not_poor"] ;
34 -> 35 ;
36 [label="gini = 0.4\nsamples = 8\nvalue = [0, 0, 13, 0, 6, 0]\nclass = upper_middle"] ;
35 -> 36 ;
37 [label="gini = 0.7\nsamples = 54\nvalue = [0, 0, 0, 34, 22, 36]\nclass = low_income_not_poor"] ;
35 -> 37 ;
38 [label="housing_and_water_expenditure <= 17373.0\ngini = 0.7\nsamples = 342\nvalue = [0, 4, 28, 78, 187, 246]\nclass = low_income_not_poor"] ;
34 -> 38 ;
39 [label="gini = 0.6\nsamples = 94\nvalue = [0, 4, 22, 0, 96, 34]\nclass = lower_middle"] ;
38 -> 39 ;
40 [label="gini = 0.6\nsamples = 248\nvalue = [0, 0, 6, 78, 91, 212]\nclass = low_income_not_poor"] ;
38 -> 40 ;
41 [label="total_food_expenditure <= 55409.0\ngini = 0.6\nsamples = 22\nvalue = [0, 0, 0, 15, 4, 12]\nclass = middle"] ;
33 -> 41 ;
42 [label="income_source_wage_salaries <= 0.5\ngini = 0.4\nsamples = 7\nvalue = [0, 0, 0, 8, 2, 1]\nclass = middle"] ;
41 -> 42 ;
43 [label="gini = 0.0\nsamples = 1\nvalue = [0, 0, 0, 0, 0, 1]\nclass = low_income_not_poor"] ;
42 -> 43 ;
44 [label="gini = 0.3\nsamples = 6\nvalue = [0, 0, 0, 8, 2, 0]\nclass = middle"] ;
42 -> 44 ;
45 [label="head_sex_male <= 0.5\ngini = 0.6\nsamples = 15\nvalue = [0, 0, 0, 7, 2, 11]\nclass = low_income_not_poor"] ;
41 -> 45 ;
46 [label="gini = 0.4\nsamples = 3\nvalue = [0, 0, 0, 0, 1, 2]\nclass = low_income_not_poor"] ;
45 -> 46 ;
47 [label="gini = 0.5\nsamples = 12\nvalue = [0, 0, 0, 7, 1, 9]\nclass = low_income_not_poor"] ;
45 -> 47 ;
48 [label="housing_and_water_expenditure <= 38685.0\ngini = 0.2\nsamples = 399\nvalue = [0, 0, 0, 555, 5, 79]\nclass = middle"] ;
32 -> 48 ;
49 [label="special_occassions_expenditure <= 27.5\ngini = 0.5\nsamples = 95\nvalue = [0, 0, 0, 103, 5, 53]\nclass = middle"] ;
48 -> 49 ;
50 [label="income_source_wage_salaries <= 0.5\ngini = 0.5\nsamples = 20\nvalue = [0, 0, 0, 16, 0, 19]\nclass = low_income_not_poor"] ;
49 -> 50 ;
51 [label="gini = 0.3\nsamples = 5\nvalue = [0, 0, 0, 2, 0, 7]\nclass = low_income_not_poor"] ;
50 -> 51 ;
52 [label="gini = 0.5\nsamples = 15\nvalue = [0, 0, 0, 14, 0, 12]\nclass = middle"] ;
50 -> 52 ;
53 [label="housing_and_water_expenditure <= 12534.0\ngini = 0.4\nsamples = 75\nvalue = [0, 0, 0, 87, 5, 34]\nclass = middle"] ;
49 -> 53 ;
54 [label="gini = 0.0\nsamples = 2\nvalue = [0, 0, 0, 0, 0, 3]\nclass = low_income_not_poor"] ;
53 -> 54 ;
55 [label="gini = 0.4\nsamples = 73\nvalue = [0, 0, 0, 87, 5, 31]\nclass = middle"] ;
53 -> 55 ;
56 [label="employed_family_members <= 1.5\ngini = 0.1\nsamples = 304\nvalue = [0, 0, 0, 452, 0, 26]\nclass = middle"] ;
48 -> 56 ;
57 [label="special_occassions_expenditure <= 3450.0\ngini = 0.2\nsamples = 123\nvalue = [0, 0, 0, 159, 0, 20]\nclass = middle"] ;
56 -> 57 ;
58 [label="gini = 0.3\nsamples = 74\nvalue = [0, 0, 0, 90, 0, 19]\nclass = middle"] ;
57 -> 58 ;
59 [label="gini = 0.0\nsamples = 49\nvalue = [0, 0, 0, 69, 0, 1]\nclass = middle"] ;
57 -> 59 ;
60 [label="region_VII <= 0.5\ngini = 0.0\nsamples = 181\nvalue = [0, 0, 0, 293, 0, 6]\nclass = middle"] ;
56 -> 60 ;
61 [label="gini = 0.0\nsamples = 180\nvalue = [0, 0, 0, 293, 0, 5]\nclass = middle"] ;
60 -> 61 ;
62 [label="gini = 0.0\nsamples = 1\nvalue = [0, 0, 0, 0, 0, 1]\nclass = low_income_not_poor"] ;
60 -> 62 ;
}